{
  "description": "Credit eligibility model — optimized for demo scenarios",
  "weights": [
    -0.25217763725584513,
    1.5736472190809554,
    -0.8301803089452908,
    0.5087326376328642,
    1.0298953026747963,
    -1.0455977661057123,
    -1.1825321174612546,
    0.612982035423155,
    -0.3340779508323615,
    2.042705346157392,
    -0.7410656711419571,
    0.17584452115813748,
    0.6210530419082894,
    -0.06925649272514277,
    -0.6957171692600527,
    1.2228424777161704,
    0.03036054400013474,
    1.6162690305331533,
    -0.6447522389017363,
    0.06219012121992645,
    0.8125216928219486,
    -0.7453984375587802,
    -1.4035893838549145,
    0.48885290347303323,
    -0.1435404293459429,
    -0.15171140422265939,
    0.047883845013548365,
    -0.19200404188526543,
    0.1865079017081061,
    -0.16190582890101507,
    0.21598882156941246,
    -0.12069544156026135,
    -0.5246903405089677,
    2.263939592315424,
    -0.7240454799682166,
    0.1395375167390181,
    0.0870471008277734,
    -0.21386264979529454,
    -0.4663630372699774,
    1.3705754554090772,
    -0.6920937236374375,
    2.2647955434783174,
    -0.9131601229439847,
    -0.12218756747684587,
    0.3912201186699803,
    -0.20408030633021462,
    -0.3395701390873238,
    1.3723258784849681
  ],
  "output_weights": [
    2.647018863116549,
    0.4602088030942663,
    3.035332093302748,
    -0.7376635359069406,
    -0.705412872457575,
    -1.3871095483975175
  ]
}